String representation of good car neural net.
To implement, set 'const bestChild' equal to: 
JSON.parse(
{"layers":[{"inputs":[0.27353968708911014,0,0,0,0],"outputs":[0,0,1,0,0,0],"biases":[-0.09399624976505075,0.17264597399299497,-0.06093232929672798,0.11401637726067135,0.04291950292494131,0.16304660359700401],"weights":[[-0.37457373132550253,0.18343014364837534,-0.15170758977279858,0.26500215569124896,-0.05825196312846735,-0.15094835247475624],[-0.2005045158474847,0.04968612010638712,-0.27165339778447944,-0.11172770171495792,-0.36785591155002606,-0.19533368785167166],[0.18197089571121997,0.24009262185389696,-0.13071022507055877,0.11210888409040945,0.15943523550298005,0.14303046920000245],[-0.016591127091049675,-0.12349587868319054,-0.21568307343102758,0.20632117764132152,0.15426723254164904,-0.053889299082688046],[-0.33158407739377777,0.16636370363821495,0.1160395022360004,-0.20164932940857805,0.19967353289156553,0.3283929111314004]]},{"inputs":[0,0,1,0,0,0],"outputs":[1,0,1,1],"biases":[-0.0327826191718077,0.12577395336506106,-0.0749112175048185,-0.5059341068692874],"weights":[[0.13934415083926366,0.15384872989593046,-0.4850250100646261,-0.10705696867425603],[-0.02663532079042087,-0.09400753923710276,-0.1759446132782058,-0.36719735734098036],[-0.035950486010970596,-0.2845908625945414,-0.05841783458666237,-0.053330940745592845],[-0.2537132871245725,0.25749196189021545,0.030639361500966255,-0.011446994715593628],[0.005909427239365241,-0.11615528330963662,0.16586504917024253,-0.022669891941297777],[0.18210046126846452,0.4528084238165463,0.19681930469066652,-0.14807144557041588]]}]}
);
